{
  "inputSize": 3,
  "hiddenSize": 10,
  "W1": [
    [
      0.27243812787786614,
      -0.15231922073998702,
      -0.10904749162475784
    ],
    [
      0.19598665261947326,
      0.3794821887702546,
      -0.41798685173706235
    ],
    [
      0.077068400901407,
      0.22667849987218483,
      -0.2951347997103485
    ],
    [
      -0.07454317746934426,
      -0.027675023828172565,
      0.49754759641185614
    ],
    [
      -0.05620200246055994,
      -0.5824154583589606,
      0.08468198414767492
    ],
    [
      -0.20139396443638366,
      -0.262479554269562,
      0.35903394579677894
    ],
    [
      0.029761173884547586,
      0.239852210634595,
      0.4529945477439564
    ],
    [
      0.32931594370766915,
      -0.44395752561041185,
      -0.22060576639579266
    ],
    [
      0.1764973802144639,
      0.1253506277280489,
      -0.3449702590169536
    ],
    [
      -0.06980460535879858,
      -0.15742758749991634,
      0.12361271908870747
    ]
  ],
  "b1": [
    0.0029233685507809104,
    -0.4102202291398928,
    0.14066096790482283,
    -0.37166889257629726,
    0.08028597541738548,
    0.051646333344825,
    0.44125864352822675,
    0.4153733462860263,
    0.23756587041585173,
    0.10027860060755645
  ],
  "W2": [
    -0.16674581437723904,
    -0.22320708936313782,
    -0.12014389385691995,
    0.2612580006948755,
    0.13174795908542844,
    0.1448857570348958,
    0.6553086722586218,
    -0.32997684327636584,
    -0.24167881495799398,
    0.011204588161756249
  ],
  "b2": 0.543858198737387
}